-0.51987239652956, 0.12952031894986618, -6.1405047913189055, -1.6901129044819962, 2.4203027897464438, 0.4409821688206734, 1.9402648504003448, -4.907895833536345, -0.8759666219999557, -1.418679165200218, -0.42638142382907374, -3.2487960757250023, 6.429891806047144, 0.8813018082074429
0.12778397049420867, 5.6263628135074475, 7.348410017340911, -7.116141766494525, 0.5835459052928372, -6.495075314511101, -2.7074452316799276, 5.088290367688288, 0.8422191687245633, -2.2030987226484293, 0.7089351024817715, 0.06775939718438316, -6.83014640878332, -0.9970620416554312
-1.0661684541287146, -5.837717775293897, 2.105738997814852, 1.569468549741198, 2.5764007486410074, 6.258263406938573, 1.4863143354527641, -1.9167537839082907, -1.6954600698364275, -1.2939525036755581, -1.1660928212869426, 6.758049034694702, -1.1303838139104347, -4.962717761813963
0.46373143289458707, -2.3683027933193745, -3.75653322267961, 4.307587898587347, -7.242648746716503, -3.0894081637880264, -1.3110668699703452, 1.952320564335898, 1.795973991401786, 2.6560980368123976, 0.4668072303076726, -3.8865601130296934, -2.9022900761592494, 2.1707896974118355
