-0.1350038472956946, -0.7878369178287666, 0.2539803801968146, 0.20233894127146151, -0.2110100941792689, -0.991729280763552, -0.04835462760884625, -0.8826039926506812, -0.2192829547824686, -0.18263546772230782, -0.07362647755190593, -0.053267336240529796, -0.4209517099480505, 0.18891531370835626
-0.516371036999097, 0.22713314748178648, -0.29724625373642377, -1.0099710663098835, -0.4471612962218866, 0.20226436161681524, 0.09885619046860102, -0.07951795018118259, -0.3482223027279423, 0.13777464908736292, 0.007017147363929024, 0.5063912390087604, 0.10612510608693358, 0.41579111359789045
-0.42211645069661063, -0.5148679416637174, -0.3170644237601846, -0.31628400249761973, 0.18017356572410528, -0.46304827485899974, 1.1816904550580594, 0.39430244761183314, 0.04812042239776805, -0.68571553385854, 0.054837842950715254, -0.31360148476756994, -0.6935492983932703, -0.9531520386849225
0.6591084611415292, -0.06058299159888383, -0.037178405956310674, -0.8791442557320934, -0.6139572053694329, 0.8334828596030425, -0.7360183342270644, -0.34765876505032584, 0.2165079987069245, -0.20229564421981772, -0.42407978053751505, 0.5107911287275885, -0.3437605893758227, -0.5230012959668218
