-0.7589932867654553, 1.287974800543437, -6.273646601722233, -1.0662088581510332, 2.308161137747192, 0.5273795505160617, 2.109217711048355, -5.403846332535648, -0.798669693148279, -1.489550442104999, -0.6720241237227318, -3.535686734852099, 5.540076652352105, 0.9311278412851441
0.09360559927679567, 5.208540262401235, 7.539265847507937, -7.020805623529726, 0.9976260500129841, -6.46268719364459, -2.7363453861995293, 5.316551502276291, 0.7135722344393212, -2.1760833256244396, 0.7494804123806839, -0.5690397583144402, -6.627995681086568, -0.9953171364423635
-1.681901221877046, -5.653071619291255, 2.4570317471913037, 1.6946728457383253, 2.613213553796482, 6.870016099813438, 1.4372716945976436, -2.464266153775642, -1.8186122289203037, -1.3102884851333008, -1.201508445429733, 6.295578565997134, -2.2134450165653887, -4.047011898932619
0.8276287612882521, -3.114932812813296, -2.8942560557783863, 4.274566202601164, -7.038720486951525, -3.165681667960475, -1.5992129937932122, 2.0561138804428727, 1.7844067343340793, 2.797170808305386, 0.2679833560387623, -4.574579093270193, -2.1547138820446636, 1.9858582319704345
