-0.7793037186447581, 0.7773057281922252, -5.658608664776797, -0.7949027412646632, 2.4222823020804833, 0.6321962697423789, 1.887943341075658, -5.67896365596297, -0.9892962313120234, -0.9568216753623997, -0.6845919967787787, -3.212367756899767, 6.308082155320632, 0.4856389179346549
0.08332927837223789, 5.464858510945134, 7.67612721334956, -7.004995719684022, 0.6751872521519298, -6.481186945708385, -2.7224513742159715, 4.696483990170316, 0.7253575747248434, -2.0535283415894745, 0.6544036253521865, -0.23625205914407704, -6.992773346759857, -0.6533504093140152
-1.0079648632764124, -6.056049506437933, 1.7470133149506692, 1.1127093706306603, 2.418555149136982, 6.1086048878201265, 1.2403504289330765, -2.0389186104055654, -1.695679637144345, -1.346074532597287, -1.3440603111242007, 7.472987153558503, -0.9930500212899682, -4.388448684230482
0.7739004156333914, -2.627876868013104, -4.271631619139621, 4.140713552786539, -7.122232073522539, -3.2117247920318275, -1.5477832888616665, 1.9719083950356913, 2.061253986245973, 2.718945959022613, 0.654503747274463, -3.4705337406121126, -2.7703823088719393, 1.9004842632717895
