-0.2501874624909611, 1.0003071334035707, -6.103912076738344, -1.5239586058093066, 1.7350429900240838, 0.8449281323239372, 2.197134234080053, -5.388126911406906, -0.5498977950957462, -1.6345429439750743, -0.44925849622638075, -2.998417346238254, 6.1449360360005345, 0.3368688879492016
0.12658159839897953, 5.313357129698064, 7.320748896996161, -7.288102584956779, 0.46187328539731143, -6.855926842109687, -2.7567060357529107, 4.9139380327296145, 0.727842903072049, -2.219297866406018, 0.7144220584210657, 0.4650812633250373, -6.690011652702798, -0.5426036140463542
-1.4258647616667461, -5.829021862420931, 1.8326553502813032, 1.088349147013505, 2.3433811249883805, 6.065212142786906, 1.5996979409063528, -2.088297484374255, -1.7931912772014282, -1.465968974526246, -1.328718661396859, 7.519972186238365, -1.6701833067510814, -4.02485428816582
0.4342661982885032, -2.6271508437829816, -3.7586959547337786, 4.240948176350188, -7.0443248689683005, -2.9440092588063376, -1.7517037136042595, 1.9437864551526254, 2.1005674773597973, 2.7175903822560987, 0.9784670362087794, -4.091882105220359, -2.626113854288736, 1.8514543674501476
